tree
version=v4
num_class=1
num_tree_per_iteration=1
label_index=0
max_feature_idx=154
objective=binary sigmoid:1
feature_names=Column_0 Column_1 Column_2 Column_3 Column_4 Column_5 Column_6 Column_7 Column_8 Column_9 Column_10 Column_11 Column_12 Column_13 Column_14 Column_15 Column_16 Column_17 Column_18 Column_19 Column_20 Column_21 Column_22 Column_23 Column_24 Column_25 Column_26 Column_27 Column_28 Column_29 Column_30 Column_31 Column_32 Column_33 Column_34 Column_35 Column_36 Column_37 Column_38 Column_39 Column_40 Column_41 Column_42 Column_43 Column_44 Column_45 Column_46 Column_47 Column_48 Column_49 Column_50 Column_51 Column_52 Column_53 Column_54 Column_55 Column_56 Column_57 Column_58 Column_59 Column_60 Column_61 Column_62 Column_63 Column_64 Column_65 Column_66 Column_67 Column_68 Column_69 Column_70 Column_71 Column_72 Column_73 Column_74 Column_75 Column_76 Column_77 Column_78 Column_79 Column_80 Column_81 Column_82 Column_83 Column_84 Column_85 Column_86 Column_87 Column_88 Column_89 Column_90 Column_91 Column_92 Column_93 Column_94 Column_95 Column_96 Column_97 Column_98 Column_99 Column_100 Column_101 Column_102 Column_103 Column_104 Column_105 Column_106 Column_107 Column_108 Column_109 Column_110 Column_111 Column_112 Column_113 Column_114 Column_115 Column_116 Column_117 Column_118 Column_119 Column_120 Column_121 Column_122 Column_123 Column_124 Column_125 Column_126 Column_127 Column_128 Column_129 Column_130 Column_131 Column_132 Column_133 Column_134 Column_135 Column_136 Column_137 Column_138 Column_139 Column_140 Column_141 Column_142 Column_143 Column_144 Column_145 Column_146 Column_147 Column_148 Column_149 Column_150 Column_151 Column_152 Column_153 Column_154
feature_infos=[0:100] [0:100] [0:100] [0:100] [0:100] [0:100] [0:100] [0:100] [0:100] [0:100] [0:100] [0:100] [0:100] [0:100] [0:100] [0:100] [0:100] [0:100] [0:100] [0:100] [0:100] [0:100] [0:56] [45:100] [0:100] [0:100] [0:58] [43:100] [0:100] [0:100] [0:100] [0:100] [0:100] [0:100] [0:100] [0:100] [0:100] [0:66] [36:100] [0:100] [0:69] [0:72] [32:100] [0:100] [0:100] [0:100] [0:100] [0:100] [0:100] [0:100] [0:100] [0:100] [0:100] [0:100] [0:100] [0:10000] [0:10000] [0:9900] [0:9900] [0:9900] [0:10000] [0:10000] [0:10000] [0:10000] [0:10000] [0:10000] [0:10000] [0:10000] [0:10000] [0:10000] [0:10000] [0:10000] [0:10000] [0:9900] [0:10000] [0:10000] [0:10000] [0:10000] [0:10000] [0:10000] [0:10000] [0:10000] [0:10000] [0:10000] [0:10000] [0:10000] [0:10000] [0:10000] [0:10000] [0:10000] [0:10000] [0:10000] [0:10000] [0:10000] [0:10000] [0:10000] [0:10000] [0:10000] [0:10000] [0:10000] [0:100] [0:100] [0:100] [0:100] [0:100] [0:100] [0:100] [0:56] [0:100] [0:100] [0:10000] [0:10000] [0:10000] [0:10000] [0:10000] [0:10000] [0:5600] [0:10000] [0:10000] [0:10000] [0:10000] [0:10000] [0:10000] [0:10000] [0:5600] [0:10000] [0:10000] [0:10000] [0:10000] [0:10000] [0:10000] [0:5600] [0:10000] [0:10000] [0:10000] [0:10000] [0:10000] [0:5600] [0:10000] [0:10000] [0:10000] [0:10000] [0:5600] [0:10000] [0:10000] [0:10000] [0:5600] [0:10000] [0:10000] [0:5600] [0:10000] [0:10000] [0:5600] [0:5600] [0:10000]
tree_sizes=3528

Tree=0
num_leaves=31
num_cat=0
split_feature=0 43 37 43 22 112 21 114 21 114 17 114 17 114 22 141 22 146 16 114 21 141 16 112 22 122 22 141 21 141
split_gain=6416.29 6.72477e-07 7.69678e-07 7.08626e-07 7.88092e-07 8.63783e-07 9.8025e-07 1.01745e-06 1.15847e-06 1.1697e-06 1.10068e-06 1.16707e-06 1.00417e-06 1.16704e-06 1.12416e-06 1.18167e-06 1.01743e-06 1.17151e-06 1.04055e-06 1.17863e-06 1.1581e-06 1.10593e-06 1.05016e-06 1.09694e-06 1.04785e-06 1.12163e-06 1.11067e-06 1.1822e-06 1.0407e-06 1.10404e-06
threshold=50.500000000000007 1.5000000000000002 2.5000000000000004 4.5000000000000009 1.0000000180025095e-35 1.0000000180025095e-35 1.0000000180025095e-35 3.5000000000000004 1.5000000000000002 10.500000000000002 2.5000000000000004 15.500000000000002 3.5000000000000004 26.000000000000004 3.5000000000000004 22.500000000000004 5.5000000000000009 55.500000000000007 3.5000000000000004 187.00000000000003 4.5000000000000009 181.00000000000003 5.5000000000000009 151.50000000000003 7.5000000000000009 292.50000000000006 9.5000000000000018 289.50000000000006 7.5000000000000009 378.00000000000006
decision_type=10 8 8 8 10 2 10 2 8 2 8 2 8 2 10 2 10 2 8 2 8 2 8 2 10 2 10 2 8 2
left_child=-1 -2 -3 -4 -5 -6 -7 -8 -9 -10 -11 -12 -13 -14 -15 -16 -17 -18 -19 -20 -21 -22 -23 -24 -25 -26 -27 -28 -29 -30
right_child=1 2 3 4 5 6 7 8 9 10 11 12 13 14 15 16 17 18 19 20 21 22 23 24 25 26 27 28 29 -31
leaf_value=-0.11996721113478506 0.080072699160485247 0.080035188121479361 0.080072753844144515 0.080038039839323782 0.080072702390978467 0.080033703181264279 0.080075842051292187 0.080030739601785583 0.080078992568635654 0.080031912128098057 0.080078964553999876 0.080033910420408499 0.08007896337467646 0.080032202436297828 0.080079120163595918 0.080033777582360938 0.080079015295032821 0.080032547605128027 0.080079080875543315 0.080030738397236303 0.080078322800158488 0.080032442771851883 0.080078227106825633 0.080032983207237618 0.080078491605591773 0.080031241849005202 0.080079120484354213 0.080032540478769412 0.080078298951936244 0.080054709247052394
leaf_weight=808.41078853607178 5.248697116971015 5.0002781748771659 5.498563513159751 7.0000624507665625 6.7485141307115546 5.5001346766948691 5.7491901218891135 4.9996239691972724 4.9992726892232886 5.2495951205492011 4.9992740452289572 5.7495399862527838 4.9992739856243125 5.4995685815811148 4.9986659437417975 5.7501480728387824 4.9985544681549063 5.2503468990325919 4.9992407560348502 4.9996240288019171 4.9986656606197348 5.2502355724573126 4.9986752867698661 5.5001339316368094 4.9990992546081534 4.9997975081205359 4.9986658394336692 5.2502036541700354 4.9986656606197348 641.17993393540382
leaf_count=3234 21 20 22 28 27 22 23 20 20 21 20 23 20 22 20 23 20 21 20 20 20 21 20 22 20 20 20 21 20 2565
internal_value=-0.0207667 0.0800549 0.0800547 0.0800549 0.0800547 0.0800549 0.0800547 0.0800549 0.0800547 0.0800549 0.0800547 0.0800549 0.0800547 0.0800549 0.0800547 0.0800549 0.0800547 0.0800549 0.0800547 0.0800549 0.0800547 0.0800549 0.0800547 0.0800549 0.0800547 0.0800549 0.0800547 0.0800549 0.0800547 0.0800549
internal_weight=1603.82 795.412 790.164 785.163 779.665 772.665 765.916 760.416 754.667 749.667 744.668 739.418 734.419 728.669 723.67 718.171 713.172 707.422 702.423 697.173 692.174 687.174 682.175 676.925 671.926 666.426 661.427 656.427 651.429 646.179
internal_count=6416 3182 3161 3141 3119 3091 3064 3042 3019 2999 2979 2958 2938 2915 2895 2873 2853 2830 2810 2789 2769 2749 2729 2708 2688 2666 2646 2626 2606 2585
is_linear=0
shrinkage=1


end of trees

feature_importances:
Column_22=5
Column_114=5
Column_21=4
Column_141=4
Column_16=2
Column_17=2
Column_43=2
Column_112=2
Column_0=1
Column_37=1
Column_122=1
Column_146=1

parameters:
[boosting: gbdt]
[objective: binary]
[metric: auc]
[tree_learner: serial]
[device_type: gpu]
[data_sample_strategy: bagging]
[data: ]
[valid: ]
[num_iterations: 100]
[learning_rate: 0.05]
[num_leaves: 31]
[num_threads: 0]
[seed: 42]
[deterministic: 0]
[force_col_wise: 1]
[force_row_wise: 0]
[histogram_pool_size: -1]
[max_depth: -1]
[min_data_in_leaf: 20]
[min_sum_hessian_in_leaf: 0.001]
[bagging_fraction: 0.8]
[pos_bagging_fraction: 1]
[neg_bagging_fraction: 1]
[bagging_freq: 5]
[bagging_seed: 400]
[bagging_by_query: 0]
[feature_fraction: 0.9]
[feature_fraction_bynode: 1]
[feature_fraction_seed: 30056]
[extra_trees: 0]
[extra_seed: 12879]
[early_stopping_round: 0]
[early_stopping_min_delta: 0]
[first_metric_only: 0]
[max_delta_step: 0]
[lambda_l1: 0]
[lambda_l2: 0]
[linear_lambda: 0]
[min_gain_to_split: 0]
[drop_rate: 0.1]
[max_drop: 50]
[skip_drop: 0.5]
[xgboost_dart_mode: 0]
[uniform_drop: 0]
[drop_seed: 17869]
[top_rate: 0.2]
[other_rate: 0.1]
[min_data_per_group: 100]
[max_cat_threshold: 32]
[cat_l2: 10]
[cat_smooth: 10]
[max_cat_to_onehot: 4]
[top_k: 20]
[monotone_constraints: ]
[monotone_constraints_method: basic]
[monotone_penalty: 0]
[feature_contri: ]
[forcedsplits_filename: ]
[refit_decay_rate: 0.9]
[cegb_tradeoff: 1]
[cegb_penalty_split: 0]
[cegb_penalty_feature_lazy: ]
[cegb_penalty_feature_coupled: ]
[path_smooth: 0]
[interaction_constraints: ]
[verbosity: 0]
[saved_feature_importance_type: 0]
[use_quantized_grad: 0]
[num_grad_quant_bins: 4]
[quant_train_renew_leaf: 0]
[stochastic_rounding: 1]
[linear_tree: 0]
[max_bin: 255]
[max_bin_by_feature: ]
[min_data_in_bin: 3]
[bin_construct_sample_cnt: 200000]
[data_random_seed: 175]
[is_enable_sparse: 1]
[enable_bundle: 1]
[use_missing: 1]
[zero_as_missing: 0]
[feature_pre_filter: 1]
[pre_partition: 0]
[two_round: 0]
[header: 0]
[label_column: ]
[weight_column: ]
[group_column: ]
[ignore_column: ]
[categorical_feature: ]
[forcedbins_filename: ]
[precise_float_parser: 0]
[parser_config_file: ]
[objective_seed: 16083]
[num_class: 1]
[is_unbalance: 0]
[scale_pos_weight: 1]
[sigmoid: 1]
[boost_from_average: 1]
[reg_sqrt: 0]
[alpha: 0.9]
[fair_c: 1]
[poisson_max_delta_step: 0.7]
[tweedie_variance_power: 1.5]
[lambdarank_truncation_level: 30]
[lambdarank_norm: 1]
[label_gain: ]
[lambdarank_position_bias_regularization: 0]
[eval_at: ]
[multi_error_top_k: 1]
[auc_mu_weights: ]
[num_machines: 1]
[local_listen_port: 12400]
[time_out: 120]
[machine_list_filename: ]
[machines: ]
[gpu_platform_id: 0]
[gpu_device_id: 0]
[gpu_use_dp: 0]
[num_gpu: 1]

end of parameters

pandas_categorical:null
